svm_type c_svc
kernel_type rbf
gamma 0.08333333333333333
nr_class 7
total_sv 39
rho -0.07238394700289305 -0.15014260560071485 -0.8344627022743225 -0.9879809617996216 -0.5315444469451904 -1.0248189076841154 0.028121763772333136 -0.6162043511867523 -0.7697226107120514 0.0029408633708953857 -0.9232408702373505 -0.5458381175994873 -0.7761155068874359 -0.428152099251747 -0.9261817336082458 -1.0 0.012274622917175293 -1.0 0.5698761940002441 -1.0 -0.9261817336082458
label 1 4 2 7 5 6 3
nr_sv 9 7 9 5 3 5 1
SV
1.0 1.0 1.0 0.0 0.0 0.0 1:0.0 2:0.0 3:0.0 5:0.0 7:1.0 12:1.0 
1.0 1.0 1.0 1.0 1.0 0.40098940381095405 1:0.0 2:0.0 3:1.0 5:0.0 7:0.0 12:0.0 
0.48369238659867503 1.0 0.0 0.0 1.0 0.0 1:1.0 2:0.0 3:0.0 5:1.0 7:0.0 12:0.0 
0.0 0.0 0.0 0.0 0.5037278634111062 0.0 1:1.0 2:0.0 3:0.0 5:0.0 7:0.0 12:0.0 
1.0 1.0 1.0 1.0 1.0 0.40444087849566324 1:1.0 2:0.0 3:1.0 5:0.0 7:1.0 12:0.0 
0.7491339459953704 0.7852094730716451 0.0 0.0 1.0 0.0 1:1.0 2:0.0 3:0.0 5:0.0 7:0.0 12:0.0 
1.0 1.0 0.9600222704610832 0.9600222704610832 0.4962721365888938 0.19456971769338274 1:0.0 2:0.0 3:0.0 5:0.0 7:1.0 12:1.0 
0.7529515587930655 0.0 0.03997772953891682 0.0 0.0 0.0 1:1.0 2:0.0 3:0.0 5:0.0 7:1.0 12:0.0 
1.0 0.18470360847215211 1.0 0.03997772953891676 0.0 0.0 1:1.0 2:0.0 3:0.0 5:0.0 7:1.0 12:0.0 
-1.0 1.0 0.0 0.0 1.0 0.0 1:0.0 2:0.0 3:1.0 5:0.0 7:0.0 12:1.0 
-0.9857778913871109 0.0 0.8001110007812546 0.0 0.0 0.0 1:0.0 2:0.0 3:1.0 5:0.0 7:1.0 12:1.0 
-1.0 0.6609160236248457 1.0 0.0 0.0 0.0 1:0.0 2:0.0 3:1.0 5:0.0 7:1.0 12:1.0 
-1.0 1.0 0.19988899921874537 0.11993339953124715 1.0 0.039977799843749065 1:0.0 2:0.0 3:1.0 5:0.0 7:0.0 12:1.0 
-1.0 1.0 1.0 0.8800666004687528 0.780323351518089 0.0 1:0.0 2:0.0 3:1.0 5:0.0 7:1.0 12:1.0 
-1.0 1.0 1.0 1.0 1.0 0.0 1:0.0 2:0.0 3:1.0 5:0.0 7:1.0 12:1.0 
-1.0 1.0 1.0 1.0 1.0 0.960022200156251 1:0.0 2:0.0 3:1.0 5:0.0 7:1.0 12:1.0 
-0.0 -0.0 0.0 0.0 0.729744887519806 0.0 1:0.0 2:1.0 3:1.0 5:1.0 7:0.0 12:0.0 
-1.0 -0.6551957407857009 1.0 0.0 0.03656999908074116 0.0 1:0.0 2:1.0 3:1.0 5:1.0 7:1.0 12:0.0 
-0.10484600543288633 -0.862633901647666 1.0 0.5 1.0 0.0 1:0.0 2:1.0 3:1.0 5:1.0 7:1.0 12:0.0 
-1.0 -1.0 1.0 1.0 0.0 0.0 1:0.0 2:1.0 3:1.0 5:0.0 7:1.0 12:0.0 
-0.0 -0.0 0.0 0.0 1.0 0.0 1:0.0 2:1.0 3:1.0 5:1.0 7:0.0 12:0.0 
-1.0 -1.0 1.0 0.5 0.11961068600978113 0.0 1:0.0 2:1.0 3:1.0 5:0.0 7:0.0 12:0.0 
-0.8671194224030606 -0.1430863811914789 0.0 0.0 1.0 0.0 1:0.0 2:1.0 3:1.0 5:1.0 7:0.0 12:0.0 
-1.0 -1.0 1.0 1.0 0.19370738386053604 0.9600222704610832 1:0.0 2:1.0 3:1.0 5:0.0 7:1.0 12:0.0 
-0.9979476537078502 -1.0 0.0 0.0 0.9203670435291357 0.03997772953891676 1:0.0 2:1.0 3:1.0 5:1.0 7:0.0 12:0.0 
-1.0 -1.0 -1.0 0.0 1.0 0.0 1:0.0 2:0.0 3:1.0 5:0.0 7:1.0 12:0.0 
-1.0 -1.0 -1.0 0.0 1.0 0.0 1:0.0 2:0.0 3:1.0 5:0.0 7:1.0 12:0.0 
-1.0 -1.0 -1.0 1.0 1.0 0.0 1:0.0 2:0.0 3:1.0 5:0.0 7:1.0 12:0.0 
-1.0 -1.0 -1.0 1.0 1.0 0.0 1:0.0 2:0.0 3:1.0 5:0.0 7:1.0 12:0.0 
-1.0 -1.0 -1.0 1.0 1.0 1.0 1:0.0 2:0.0 3:1.0 5:0.0 7:1.0 12:0.0 
-1.0 -1.0 -1.0 -1.0 1.0 0.0 1:0.0 2:0.0 3:1.0 5:0.0 7:1.0 12:0.0 
-1.0 -1.0 -1.0 -1.0 1.0 0.0 1:0.0 2:0.0 3:1.0 5:0.0 7:1.0 12:0.0 
-1.0 -1.0 -1.0 -1.0 1.0 1.0 1:0.0 2:0.0 3:1.0 5:0.0 7:1.0 12:0.0 
-1.0 -1.0 -1.0 -1.0 -1.0 0.0 1:0.0 2:0.0 3:1.0 5:1.0 7:0.0 12:0.0 
-1.0 -0.780323351518089 -1.0 -1.0 -0.0 0.0 1:1.0 2:0.0 3:1.0 5:1.0 7:0.0 12:0.0 
-1.0 -1.0 -1.0 -1.0 -0.0 0.0 1:1.0 2:0.0 3:1.0 5:1.0 7:0.0 12:0.0 
-1.0 -1.0 -1.0 -1.0 -1.0 0.9600222704610832 1:0.0 2:0.0 3:1.0 5:1.0 7:1.0 12:0.0 
-1.0 -1.0 -1.0 -1.0 -1.0 0.03997772953891676 1:1.0 2:0.0 3:1.0 5:1.0 7:0.0 12:0.0 
-1.0 -1.0 -1.0 -1.0 -1.0 -1.0 1:0.0 2:0.0 3:1.0 5:0.0 7:1.0 12:0.0 
